svm_type c_svc
kernel_type rbf
gamma 0.09090909090909091
nr_class 2
total_sv 63
rho -0.3718992387511624
label 1 -1
nr_sv 39 24
SV
0.3062607362098739 1:0.0 2:1.0 3:2.0 4:0.0 5:0.0 6:0.0 7:2.0 8:0.0 9:0.0 10:0.0 11:0.0 
1.0 1:0.0 2:1.0 3:2.0 4:0.0 5:0.0 6:1.0 7:0.0 8:0.0 9:0.0 10:0.0 11:0.0 
1.0 1:0.0 2:1.0 3:2.0 4:0.0 5:0.0 6:0.0 7:0.0 8:0.0 9:0.0 10:0.0 11:0.0 
1.0 1:0.0 2:1.0 3:2.0 4:0.0 5:0.0 6:0.0 7:0.0 8:0.0 9:0.0 10:0.0 11:0.0 
0.44209924157951247 1:0.0 2:1.0 3:2.0 4:0.0 5:0.0 6:0.0 7:0.0 8:0.0 9:0.0 10:0.0 11:0.0 
0.895947913075224 1:0.0 2:2.0 3:2.0 4:1.0 5:0.0 6:0.0 7:0.0 8:0.0 9:0.0 10:0.0 11:1.0 
0.36723489136043497 1:0.0 2:2.0 3:2.0 4:0.0 5:0.0 6:1.0 7:0.0 8:0.0 9:1.0 10:0.0 11:1.0 
0.5049978295872257 1:0.0 2:2.0 3:2.0 4:0.0 5:0.0 6:0.0 7:0.0 8:0.0 9:0.0 10:0.0 11:1.0 
0.999758169788239 1:0.0 2:2.0 3:2.0 4:0.0 5:0.0 6:0.0 7:0.0 8:0.0 9:0.0 10:0.0 11:1.0 
0.6085163553704357 1:0.0 2:2.0 3:2.0 4:1.0 5:0.0 6:0.0 7:0.0 8:0.0 9:0.0 10:2.0 11:2.0 
1.0 1:1.0 2:2.0 3:2.0 4:0.0 5:0.0 6:0.0 7:0.0 8:0.0 9:0.0 10:0.0 11:2.0 
1.0 1:0.0 2:2.0 3:2.0 4:0.0 5:0.0 6:1.0 7:0.0 8:1.0 9:1.0 10:0.0 11:2.0 
1.0 1:1.0 2:2.0 3:2.0 4:0.0 5:0.0 6:0.0 7:0.0 8:0.0 9:0.0 10:0.0 11:3.0 
0.15281972142594652 1:1.0 2:2.0 3:2.0 4:0.0 5:0.0 6:0.0 7:2.0 8:0.0 9:0.0 10:0.0 11:3.0 
0.6208263092509614 1:0.0 2:2.0 3:2.0 4:1.0 5:0.0 6:0.0 7:0.0 8:0.0 9:0.0 10:0.0 11:3.0 
0.3615767487007142 1:1.0 2:2.0 3:2.0 4:2.0 5:0.0 6:0.0 7:0.0 8:0.0 9:0.0 10:0.0 11:4.0 
0.03755737206332236 1:1.0 2:2.0 3:2.0 4:1.0 5:0.0 6:0.0 7:0.0 8:0.0 9:0.0 10:2.0 11:4.0 
0.11395246555133628 1:1.0 2:2.0 3:2.0 4:0.0 5:0.0 6:0.0 7:0.0 8:0.0 9:0.0 10:0.0 11:4.0 
0.22390454368887597 1:0.0 2:2.0 3:2.0 4:0.0 5:0.0 6:1.0 7:0.0 8:2.0 9:2.0 10:0.0 11:4.0 
0.013508343511946722 1:0.0 2:2.0 3:2.0 4:1.0 5:0.0 6:0.0 7:0.0 8:0.0 9:0.0 10:0.0 11:4.0 
0.8993172471569348 1:0.0 2:2.0 3:2.0 4:1.0 5:0.0 6:0.0 7:0.0 8:0.0 9:0.0 10:0.0 11:4.0 
0.016532481279421512 1:0.0 2:2.0 3:2.0 4:0.0 5:0.0 6:0.0 7:0.0 8:0.0 9:0.0 10:0.0 11:4.0 
0.5742163937496944 1:0.0 2:2.0 3:2.0 4:0.0 5:0.0 6:0.0 7:0.0 8:0.0 9:0.0 10:0.0 11:4.0 
1.0 1:0.0 2:2.0 3:2.0 4:0.0 5:0.0 6:0.0 7:0.0 8:0.0 9:0.0 10:0.0 11:4.0 
1.0 1:1.0 2:2.0 3:2.0 4:1.0 5:0.0 6:0.0 7:0.0 8:0.0 9:0.0 10:2.0 11:5.0 
0.31526611537631094 1:1.0 2:2.0 3:2.0 4:0.0 5:0.0 6:0.0 7:0.0 8:0.0 9:0.0 10:0.0 11:5.0 
0.318230740255114 1:0.0 2:2.0 3:2.0 4:0.0 5:0.0 6:1.0 7:0.0 8:3.0 9:2.0 10:0.0 11:5.0 
0.462895242699776 1:1.0 2:2.0 3:2.0 4:0.0 5:0.0 6:0.0 7:0.0 8:0.0 9:0.0 10:0.0 11:5.0 
0.31104706029354195 1:1.0 2:2.0 3:2.0 4:0.0 5:0.0 6:0.0 7:0.0 8:0.0 9:0.0 10:0.0 11:5.0 
0.43185137259273204 1:0.0 2:2.0 3:2.0 4:2.0 5:0.0 6:0.0 7:1.0 8:0.0 9:0.0 10:1.0 11:6.0 
1.0 1:0.0 2:2.0 3:2.0 4:0.0 5:0.0 6:1.0 7:0.0 8:4.0 9:2.0 10:0.0 11:6.0 
0.225185418411888 1:0.0 2:2.0 3:2.0 4:2.0 5:0.0 6:0.0 7:0.0 8:0.0 9:0.0 10:0.0 11:6.0 
0.15581730433960772 1:0.0 2:2.0 3:2.0 4:2.0 5:0.0 6:0.0 7:1.0 8:0.0 9:0.0 10:1.0 11:7.0 
0.7142768700211077 1:1.0 2:2.0 3:2.0 4:1.0 5:0.0 6:0.0 7:0.0 8:0.0 9:0.0 10:2.0 11:7.0 
0.1592101575427794 1:1.0 2:2.0 3:2.0 4:0.0 5:0.0 6:0.0 7:2.0 8:0.0 9:0.0 10:0.0 11:7.0 
0.02862632413456803 1:0.0 2:2.0 3:2.0 4:0.0 5:0.0 6:1.0 7:0.0 8:4.0 9:3.0 10:0.0 11:7.0 
0.8634555464547049 1:0.0 2:2.0 3:2.0 4:1.0 5:0.0 6:0.0 7:0.0 8:0.0 9:0.0 10:0.0 11:7.0 
0.704205689969343 1:1.0 2:2.0 3:2.0 4:0.0 5:0.0 6:0.0 7:0.0 8:0.0 9:0.0 10:0.0 11:7.0 
0.8259628012784037 1:1.0 2:2.0 3:2.0 4:0.0 5:0.0 6:0.0 7:0.0 8:0.0 9:0.0 10:0.0 11:7.0 
-1.0 1:0.0 2:1.0 3:2.0 4:0.0 5:0.0 6:0.0 7:0.0 8:0.0 9:0.0 10:0.0 11:0.0 
-1.0 1:0.0 2:1.0 3:2.0 4:0.0 5:0.0 6:0.0 7:0.0 8:0.0 9:0.0 10:0.0 11:0.0 
-1.0 1:0.0 2:1.0 3:2.0 4:0.0 5:0.0 6:0.0 7:0.0 8:0.0 9:0.0 10:0.0 11:0.0 
-1.0 1:0.0 2:2.0 3:2.0 4:0.0 5:0.0 6:0.0 7:0.0 8:0.0 9:0.0 10:0.0 11:1.0 
-1.0 1:0.0 2:2.0 3:2.0 4:0.0 5:0.0 6:2.0 7:0.0 8:1.0 9:0.0 10:0.0 11:1.0 
-1.0 1:0.0 2:2.0 3:2.0 4:0.0 5:1.0 6:0.0 7:0.0 8:0.0 9:0.0 10:0.0 11:1.0 
-1.0 1:0.0 2:2.0 3:2.0 4:1.0 5:0.0 6:0.0 7:0.0 8:0.0 9:0.0 10:0.0 11:2.0 
-1.0 1:0.0 2:2.0 3:2.0 4:0.0 5:0.0 6:2.0 7:0.0 8:2.0 9:0.0 10:0.0 11:2.0 
-1.0 1:1.0 2:2.0 3:2.0 4:0.0 5:1.0 6:0.0 7:0.0 8:0.0 9:0.0 10:0.0 11:2.0 
-1.0 1:0.0 2:2.0 3:2.0 4:1.0 5:0.0 6:0.0 7:0.0 8:0.0 9:0.0 10:0.0 11:3.0 
-0.3632212906240511 1:0.0 2:2.0 3:2.0 4:0.0 5:1.0 6:2.0 7:0.0 8:3.0 9:0.0 10:0.0 11:3.0 
-1.0 1:1.0 2:2.0 3:2.0 4:0.0 5:1.0 6:0.0 7:0.0 8:0.0 9:0.0 10:0.0 11:3.0 
-1.0 1:0.0 2:2.0 3:2.0 4:1.0 5:0.0 6:0.0 7:0.0 8:0.0 9:0.0 10:1.0 11:4.0 
-0.6419050864984316 1:0.0 2:2.0 3:2.0 4:0.0 5:1.0 6:2.0 7:0.0 8:4.0 9:0.0 10:0.0 11:4.0 
-1.0 1:1.0 2:2.0 3:2.0 4:0.0 5:1.0 6:0.0 7:0.0 8:0.0 9:0.0 10:0.0 11:4.0 
-1.0 1:0.0 2:2.0 3:2.0 4:1.0 5:0.0 6:0.0 7:0.0 8:0.0 9:0.0 10:1.0 11:5.0 
-0.2292176865576599 1:0.0 2:2.0 3:2.0 4:0.0 5:1.0 6:2.0 7:0.0 8:5.0 9:0.0 10:0.0 11:5.0 
-1.0 1:1.0 2:2.0 3:2.0 4:0.0 5:1.0 6:0.0 7:0.0 8:0.0 9:0.0 10:0.0 11:5.0 
-1.0 1:0.0 2:2.0 3:2.0 4:1.0 5:0.0 6:0.0 7:0.0 8:0.0 9:0.0 10:1.0 11:6.0 
-0.4207133430398346 1:0.0 2:2.0 3:2.0 4:0.0 5:1.0 6:2.0 7:0.0 8:6.0 9:0.0 10:0.0 11:6.0 
-1.0 1:1.0 2:2.0 3:2.0 4:0.0 5:1.0 6:0.0 7:0.0 8:0.0 9:0.0 10:0.0 11:6.0 
-1.0 1:0.0 2:2.0 3:2.0 4:1.0 5:1.0 6:0.0 7:0.0 8:0.0 9:0.0 10:1.0 11:7.0 
-1.0 1:1.0 2:2.0 3:2.0 4:0.0 5:1.0 6:2.0 7:0.0 8:6.0 9:0.0 10:0.0 11:7.0 
-1.0 1:1.0 2:2.0 3:2.0 4:0.0 5:1.0 6:0.0 7:0.0 8:0.0 9:0.0 10:0.0 11:7.0 
